Language model created by QuickLM on Sat May  3 22:38:26 EDT 2014
Copyright (c) 1996-2010 Carnegie Mellon University and Alexander I. Rudnicky

The model is in standard ARPA format, designed by Doug Paul while he was at MITRE.

The code that was used to produce this language model is available in Open Source.
Please visit http://www.speech.cs.cmu.edu/tools/ for more information

The (fixed) discount mass is 0.5. The backoffs are computed using the ratio method.
This model based on a corpus of 151 sentences and 158 words

\data\
ngram 1=158
ngram 2=368
ngram 3=436

\1-grams:
-3.3113 1 -0.2935
-3.0103 10 -0.2998
-3.3113 100 -0.2989
-3.3113 15 -0.2998
-3.0103 3 -0.2597
-3.3113 35 -0.2678
-2.7093 5 -0.2995
-3.3113 75% -0.2678
-3.0103 95 -0.2989
-3.3113 96 -0.2989
-3.3113 98 -0.2989
-3.3113 99 -0.2989
-1.1324 </s> -0.3010
-1.1324 <s> -0.2372
-2.4662 A -0.2963
-3.3113 ABC -0.2678
-2.8342 ABOUT -0.3004
-3.0103 AFTERNOON -0.2678
-3.3113 ALOHA -0.2678
-2.4082 BASEMENT -0.2517
-3.3113 BATHROOM -0.2985
-2.6124 BE -0.2989
-3.0103 BEDROOM -0.2914
-3.3113 CALIFORNIA -0.2942
-2.8342 CANCEL -0.2842
-3.3113 CARTER'S -0.2963
-3.3113 CBS -0.2678
-2.4662 CHANGE -0.2844
-3.0103 CHANNEL -0.2933
-2.8342 CHRISTMAS -0.2914
-3.0103 CLOUDY -0.2998
-3.0103 COLD -0.2974
-3.0103 COLUMBUS -0.2669
-3.3113 CORNER -0.3000
-3.3113 CURRENTLY -0.3002
-3.3113 CYBERMAN -0.2983
-3.3113 DALEK -0.2983
-3.0103 DIE -0.2678
-3.3113 DIEGO, -0.3008
-2.3571 DIM -0.2850
-2.1352 DINING -0.2963
-3.3113 DOES -0.2850
-3.3113 DOING -0.2678
-3.3113 DON'T -0.3008
-2.1652 DOWN -0.2464
-2.1652 EHMA -0.2710
-3.0103 ESPN -0.2678
-3.3113 EVENING -0.2678
-2.7093 FAN -0.2562
-3.0103 FIFTY -0.2989
-2.8342 FLIP -0.2850
-2.7093 FOX -0.2675
-3.3113 FOXES -0.2678
-3.3113 FULL -0.2678
-2.8342 GIVE -0.2905
-3.3113 GO -0.2935
-2.7093 GOOD -0.3000
-3.3113 HAL -0.2983
-3.3113 HALF -0.2678
-3.3113 HELLO -0.2678
-3.3113 HGTV -0.2678
-3.0103 HI -0.2678
-3.3113 HOLA -0.2678
-3.0103 HOT -0.2974
-2.6124 HOW -0.3000
-3.0103 HOWDY -0.2678
-3.3113 HUE -0.2935
-2.5332 I -0.2998
-2.1352 IN -0.2367
-2.0809 IS -0.2762
-1.9891 IT -0.2507
-3.3113 JARVIS -0.2983
-3.3113 JEEVES -0.2983
-3.3113 LAST -0.3008
-3.3113 LIFE -0.2678
-2.2321 LIGHT -0.2493
-1.6581 LIGHTS -0.2486
-2.5332 LIKE -0.2974
-2.7093 LIVING -0.2963
-3.3113 MADDIE'S -0.2963
-3.0103 MASTER -0.3004
-2.7093 ME -0.2989
-3.3113 MEANING -0.2998
-3.3113 MIAMI -0.3008
-2.5332 MINUTE -0.2985
-3.3113 MINUTES -0.2678
-3.3113 MONDAY? -0.2678
-3.3113 MORNING -0.2678
-3.3113 MOTORS -0.2678
-2.8342 MOVIE -0.2678
-3.0103 MTV -0.2678
-2.6124 NAME -0.2998
-3.3113 NEED -0.2995
-3.3113 NEW -0.3000
-3.3113 NIGHT -0.2678
-3.3113 NORTH -0.3004
-3.0103 NOW -0.2678
-3.3113 NOW? -0.2678
-2.5332 OF -0.2985
-2.2321 OFF -0.2387
-1.8062 ON -0.2292
-3.3113 ORDER -0.2678
-3.3113 OUT -0.3002
-2.6124 OUTLET -0.2671
-2.8342 OUTSIDE -0.2678
-3.0103 OUTSIDE? -0.2678
-2.3113 PERCENT -0.2678
-3.3113 PHILLIPS -0.3008
-3.3113 PLAY -0.2850
-2.8342 PLEASE -0.2968
-2.8342 RAIN -0.2673
-2.7093 RAINING -0.2666
-3.3113 RAINY -0.2974
-3.0103 RIGHT -0.3004
-1.9689 ROOM -0.2481
-3.3113 SAN -0.3008
-3.3113 SARAH -0.2983
-3.3113 SAY? -0.2678
-2.3571 SET -0.2835
-3.3113 SEVENTY-FIVE -0.2989
-3.3113 SHOW -0.2914
-2.1974 SHUT -0.2981
-3.3113 SOUTH -0.3004
-2.5332 STOP -0.2374
-3.0103 SUNNY -0.3000
-2.7093 TELL -0.2970
-3.3113 TEMPERATURE -0.2974
-3.3113 TEMPERATURE? -0.2678
-3.3113 TESLA -0.3008
-2.7093 THAT -0.2931
-1.4421 THE -0.2646
-3.0103 THIS -0.2959
-3.3113 THUNDER -0.2678
-3.0103 TIME -0.2639
-2.2321 TIMER -0.2615
-1.7673 TO -0.2848
-2.7093 TODAY -0.2678
-3.3113 TOGGLE -0.2850
-3.3113 TOMORROW -0.2678
-1.6581 TURN -0.2599
-3.0103 TV -0.2643
-3.3113 TWENTY-FIVE -0.2989
-3.3113 UP -0.2850
-2.8342 WALL -0.2985
-2.6124 WANT -0.2935
-3.3113 WAS -0.3002
-2.7093 WATCH -0.2981
-2.7093 WEATHER -0.2987
-3.3113 WEST -0.3004
-2.3571 WHAT -0.2948
-3.0103 WHAT'S -0.2804
-3.3113 WHATS -0.2850
-3.3113 WHEN -0.2995
-3.3113 WHY -0.3008
-2.4662 WILL -0.2804
-3.3113 YLVIS -0.2678
-3.3113 YOU -0.3006
-3.3113 YOU'RE -0.3008

\2-grams:
-0.3010 1 TO -0.2948
-0.3010 10 MINUTE 0.0000
-0.3010 100 PERCENT 0.0000
-0.3010 15 MINUTE 0.0000
-0.6021 3 </s> -0.3010
-0.6021 3 TO -0.2755
-0.3010 35 </s> -0.3010
-0.4260 5 MINUTE 0.0000
-0.9031 5 MINUTES 0.0000
-0.3010 75% </s> -0.3010
-0.3010 95 PERCENT 0.0000
-0.3010 96 PERCENT 0.0000
-0.3010 98 PERCENT 0.0000
-0.3010 99 PERCENT 0.0000
-2.4800 <s> 5 -0.0969
-2.4800 <s> ALOHA 0.0000
-2.0029 <s> CANCEL 0.0000
-1.7810 <s> CHANGE -0.0580
-2.4800 <s> CYBERMAN 0.0000
-2.4800 <s> DALEK 0.0000
-1.5258 <s> DIM 0.0000
-1.3661 <s> EHMA 0.0000
-2.0029 <s> FLIP 0.0000
-2.0029 <s> GIVE 0.0000
-2.4800 <s> GO 0.0000
-1.8779 <s> GOOD 0.0000
-2.4800 <s> HAL 0.0000
-2.4800 <s> HELLO 0.0000
-2.1790 <s> HI 0.0000
-2.4800 <s> HOLA 0.0000
-1.7810 <s> HOW 0.0000
-2.1790 <s> HOWDY 0.0000
-1.7019 <s> I 0.0000
-2.4800 <s> IN -0.2863
-1.6349 <s> IS -0.0706
-2.0029 <s> IT -0.2688
-2.4800 <s> JARVIS 0.0000
-2.4800 <s> JEEVES 0.0000
-2.4800 <s> OFF -0.2825
-2.4800 <s> PLAY 0.0000
-2.1790 <s> PLEASE 0.0000
-2.4800 <s> SARAH 0.0000
-1.5258 <s> SET 0.0000
-2.0029 <s> SHUT 0.0000
-1.7019 <s> STOP 0.0000
-2.0029 <s> TELL -0.0969
-2.4800 <s> THAT -0.2430
-2.4800 <s> TO -0.2948
-2.4800 <s> TOGGLE 0.0000
-1.0176 <s> TURN -0.0095
-2.4800 <s> WAS 0.0000
-1.5769 <s> WHAT -0.0458
-2.1790 <s> WHAT'S 0.0000
-2.4800 <s> WHATS 0.0000
-2.4800 <s> WHEN 0.0000
-2.4800 <s> WHY 0.0000
-2.0029 <s> WILL -0.1549
-0.8451 A 10 0.0000
-1.1461 A 15 0.0000
-0.8451 A 5 -0.0969
-1.1461 A MOVIE 0.0000
-1.1461 A TIMER -0.1513
-0.3010 ABC </s> -0.3010
-0.7782 ABOUT FOXES 0.0000
-0.7782 ABOUT TESLA 0.0000
-0.7782 ABOUT YLVIS 0.0000
-0.3010 AFTERNOON </s> -0.3010
-0.3010 ALOHA </s> -0.3010
-0.7270 BASEMENT </s> -0.3010
-1.2041 BASEMENT LIGHT -0.1761
-0.7270 BASEMENT LIGHTS -0.0711
-1.2041 BASEMENT TIMER -0.1513
-0.3010 BATHROOM LIGHT -0.2632
-1.0000 BE CLOUDY -0.1761
-0.5229 BE LIKE -0.0669
-1.0000 BE SUNNY -0.1761
-0.3010 BEDROOM LIGHTS -0.2711
-0.3010 CALIFORNIA ON -0.2942
-0.7782 CANCEL THAT -0.2430
-0.4771 CANCEL THE -0.2921
-0.3010 CARTER'S ROOM -0.2596
-0.3010 CBS </s> -0.3010
-1.1461 CHANGE CHRISTMAS 0.0000
-0.3680 CHANGE THE -0.2831
-0.6021 CHANNEL 35 0.0000
-0.6021 CHANNEL TO -0.2948
-0.3010 CHRISTMAS LIGHTS -0.0711
-0.6021 CLOUDY RIGHT -0.1761
-0.6021 CLOUDY TODAY 0.0000
-0.3010 COLD IS -0.0918
-0.6021 COLUMBUS </s> -0.3010
-0.6021 COLUMBUS TODAY 0.0000
-0.3010 CORNER OUTLET -0.1461
-0.3010 CURRENTLY RAINING -0.1761
-0.3010 CYBERMAN SHUT 0.0000
-0.3010 DALEK SHUT 0.0000
-0.3010 DIE </s> -0.3010
-0.3010 DIEGO, CALIFORNIA 0.0000
-0.3010 DIM THE -0.2346
-0.3010 DINING ROOM -0.1047
-0.3010 DOES THE -0.2981
-0.3010 DOING </s> -0.3010
-0.3010 DON'T YOU 0.0000
-0.4058 DOWN </s> -0.3010
-1.4472 DOWN IN -0.2863
-1.4472 DOWN NOW 0.0000
-1.4472 DOWN THE -0.2380
-1.4472 EHMA DIE 0.0000
-1.4472 EHMA PLEASE -0.1249
-1.1461 EHMA SHUT 0.0000
-1.4472 EHMA THE -0.2981
-0.4929 EHMA TURN -0.0189
-0.3010 ESPN </s> -0.3010
-0.3010 EVENING </s> -0.3010
-0.6021 FAN </s> -0.3010
-0.9031 FAN IN -0.2863
-0.9031 FAN TO -0.2948
-0.3010 FIFTY PERCENT 0.0000
-0.3010 FLIP THE -0.2891
-0.4260 FOX </s> -0.3010
-0.9031 FOX SAY? 0.0000
-0.3010 FOXES </s> -0.3010
-0.3010 FULL </s> -0.3010
-0.7782 GIVE ME -0.2430
-0.4771 GIVE TURN -0.1856
-0.3010 GO TO -0.2884
-0.9031 GOOD AFTERNOON 0.0000
-0.9031 GOOD EVENING 0.0000
-0.9031 GOOD MORNING 0.0000
-0.9031 GOOD NIGHT 0.0000
-0.3010 HAL SHUT 0.0000
-0.3010 HALF </s> -0.3010
-0.3010 HELLO </s> -0.3010
-0.3010 HGTV </s> -0.3010
-0.3010 HI </s> -0.3010
-0.3010 HOLA </s> -0.3010
-0.3010 HOT IS -0.0918
-0.6990 HOW COLD 0.0000
-0.6990 HOW HOT 0.0000
-1.0000 HOW RAINY 0.0000
-0.3010 HOWDY </s> -0.3010
-0.3010 HUE TO -0.2948
-1.0792 I NEED 0.0000
-0.3802 I WANT 0.0000
-1.4771 IN 5 -0.2430
-1.1761 IN </s> -0.3010
-1.4771 IN CARTER'S 0.0000
-1.1761 IN COLUMBUS 0.0000
-1.4771 IN MADDIE'S 0.0000
-1.4771 IN MIAMI 0.0000
-1.4771 IN SAN 0.0000
-0.8751 IN THE -0.2675
-1.4771 IN THIS -0.1761
-1.4771 IN TURN -0.1856
-1.5315 IS DINING 0.0000
-0.4175 IS IT -0.1402
-1.5315 IS THAT -0.2430
-1.2304 IS THE -0.2951
-1.0212 IT </s> -0.3010
-1.3222 IT BE -0.2041
-1.6232 IT CLOUDY -0.1761
-1.6232 IT CURRENTLY 0.0000
-1.6232 IT LIKE -0.2632
-1.3222 IT OUTSIDE 0.0000
-1.6232 IT OUTSIDE? 0.0000
-1.3222 IT RAIN 0.0000
-1.1461 IT RAINING 0.0000
-1.6232 IT SUNNY -0.1761
-1.1461 IT TURN -0.1249
-0.3010 JARVIS SHUT 0.0000
-0.3010 JEEVES SHUT 0.0000
-0.3010 LAST ORDER 0.0000
-0.3010 LIFE </s> -0.3010
-0.6021 LIGHT </s> -0.3010
-1.3802 LIGHT OFF -0.2632
-1.0792 LIGHT ON -0.2430
-0.9031 LIGHT TO -0.2820
-0.5563 LIGHTS </s> -0.3010
-1.6532 LIGHTS IN -0.2041
-1.1761 LIGHTS ON -0.2430
-0.8751 LIGHTS TO -0.2194
-0.3802 LIKE IN -0.2041
-1.0792 LIKE OUTSIDE? 0.0000
-0.3010 LIVING ROOM -0.0889
-0.3010 MADDIE'S ROOM -0.2596
-0.6021 MASTER BATHROOM 0.0000
-0.6021 MASTER BEDROOM 0.0000
-0.9031 ME A -0.2341
-0.4260 ME ABOUT 0.0000
-0.3010 MEANING OF -0.2632
-0.3010 MIAMI TOMORROW 0.0000
-0.3010 MINUTE TIMER -0.0348
-0.3010 MINUTES </s> -0.3010
-0.3010 MONDAY? </s> -0.3010
-0.3010 MORNING </s> -0.3010
-0.3010 MOTORS </s> -0.3010
-0.3010 MOVIE </s> -0.3010
-0.3010 MTV </s> -0.3010
-0.3010 NAME OF -0.0669
-0.3010 NEED A -0.2341
-0.3010 NEW OUTLET -0.1461
-0.3010 NIGHT </s> -0.3010
-0.3010 NORTH WALL 0.0000
-0.3010 NOW </s> -0.3010
-0.3010 NOW? </s> -0.3010
-1.0792 OF LIFE 0.0000
-1.0792 OF LIVING 0.0000
-0.7782 OF OUTLET -0.2041
-1.0792 OF PHILLIPS 0.0000
-1.0792 OF WEST 0.0000
-1.0792 OFF </s> -0.3010
-1.3802 OFF LIGHTS -0.1597
-1.3802 OFF TELL -0.2430
-0.4771 OFF THE -0.1877
-0.9031 ON </s> -0.3010
-1.8062 ON FOX -0.0969
-1.2041 ON LIGHTS -0.1597
-1.8062 ON MONDAY? 0.0000
-1.8062 ON MTV 0.0000
-0.6021 ON THE -0.1561
-1.8062 ON TO -0.2755
-0.3010 ORDER </s> -0.3010
-0.3010 OUT TODAY 0.0000
-1.0000 OUTLET 1 0.0000
-1.0000 OUTLET 3 -0.1761
-0.5229 OUTLET </s> -0.3010
-0.3010 OUTSIDE </s> -0.3010
-0.3010 OUTSIDE? </s> -0.3010
-0.3010 PERCENT </s> -0.3010
-0.3010 PHILLIPS HUE 0.0000
-0.3010 PLAY THE -0.2951
-0.7782 PLEASE CHANGE -0.0580
-0.4771 PLEASE SHUT 0.0000
-0.4771 RAIN </s> -0.3010
-0.7782 RAIN THIS -0.1761
-0.6021 RAINING </s> -0.3010
-0.9031 RAINING OUTSIDE 0.0000
-0.9031 RAINING RIGHT -0.1761
-0.3010 RAINY IS -0.0918
-0.6021 RIGHT NOW 0.0000
-0.6021 RIGHT NOW? 0.0000
-1.0414 ROOM </s> -0.3010
-1.6435 ROOM FAN -0.2430
-1.1663 ROOM LIGHT -0.1761
-0.6021 ROOM LIGHTS -0.1176
-1.6435 ROOM LIKE -0.0669
-1.6435 ROOM OUTLET -0.1461
-1.6435 ROOM TIMER -0.2825
-0.3010 SAN DIEGO, 0.0000
-0.3010 SARAH SHUT 0.0000
-0.3010 SAY? </s> -0.3010
-0.6532 SET A -0.1549
-0.5563 SET THE -0.2063
-0.3010 SEVENTY-FIVE PERCENT 0.0000
-0.3010 SHOW LIGHTS -0.1597
-0.3010 SHUT DOWN -0.0300
-0.3010 SOUTH WALL 0.0000
-1.0792 STOP </s> -0.3010
-0.6021 STOP THE -0.2611
-1.0792 STOP TURN -0.1856
-1.0792 STOP WHAT -0.2762
-0.6021 SUNNY OUT 0.0000
-0.6021 SUNNY TODAY 0.0000
-0.9031 TELL DINING 0.0000
-0.4260 TELL ME -0.0969
-0.3010 TEMPERATURE IS -0.0918
-0.3010 TEMPERATURE? </s> -0.3010
-0.3010 TESLA MOTORS 0.0000
-0.9031 THAT LAST 0.0000
-0.9031 THAT ON -0.1761
-0.9031 THAT RAIN -0.1249
-0.9031 THAT THUNDER 0.0000
-1.2672 THE BASEMENT 0.0000
-2.1703 THE BEDROOM 0.0000
-2.1703 THE CHANNEL -0.1761
-2.1703 THE CHRISTMAS 0.0000
-1.2160 THE DINING 0.0000
-1.8692 THE FAN -0.0969
-2.1703 THE FOX -0.2430
-1.5682 THE LIGHT -0.0969
-0.8692 THE LIGHTS -0.0544
-1.6931 THE LIVING 0.0000
-1.8692 THE MASTER 0.0000
-2.1703 THE MEANING 0.0000
-1.8692 THE MOVIE 0.0000
-1.4713 THE NAME 0.0000
-2.1703 THE NORTH 0.0000
-2.1703 THE ON -0.2942
-2.1703 THE SOUTH 0.0000
-2.1703 THE TEMPERATURE? 0.0000
-2.1703 THE TIME -0.1761
-1.6931 THE TIMER -0.0348
-1.8692 THE TV 0.0000
-1.5682 THE WEATHER 0.0000
-0.6021 THIS AFTERNOON 0.0000
-0.6021 THIS ROOM -0.2596
-0.3010 THUNDER </s> -0.3010
-0.6021 TIME </s> -0.3010
-0.6021 TIME IS -0.0918
-0.5351 TIMER </s> -0.3010
-0.7782 TIMER IN -0.2041
-1.3802 TIMER OFF -0.2632
-1.8451 TO 100 0.0000
-1.8451 TO 3 -0.1761
-1.8451 TO 75% 0.0000
-1.5441 TO 95 0.0000
-1.8451 TO 96 0.0000
-1.8451 TO 98 0.0000
-1.8451 TO 99 0.0000
-1.8451 TO CBS 0.0000
-1.8451 TO CHANGE -0.2688
-1.8451 TO CHANNEL -0.1761
-1.8451 TO CHRISTMAS 0.0000
-1.8451 TO CORNER 0.0000
-1.2430 TO DINING 0.0000
-1.8451 TO EHMA -0.1326
-1.5441 TO ESPN 0.0000
-1.8451 TO FAN -0.1761
-1.5441 TO FIFTY 0.0000
-1.8451 TO FOX -0.0969
-1.8451 TO FULL 0.0000
-1.8451 TO HALF 0.0000
-1.8451 TO HGTV 0.0000
-1.8451 TO NEW 0.0000
-1.8451 TO SEVENTY-FIVE 0.0000
-1.8451 TO SHOW 0.0000
-1.8451 TO TWENTY-FIVE 0.0000
-1.2430 TO WATCH 0.0000
-0.3010 TODAY </s> -0.3010
-0.3010 TOGGLE THE -0.2891
-0.3010 TOMORROW </s> -0.3010
-1.9542 TURN DOWN -0.2852
-1.9542 TURN IS -0.2881
-1.0000 TURN OFF -0.0969
-0.6320 TURN ON -0.1181
-1.2553 TURN THE -0.2546
-1.1091 TURN TO -0.2341
-1.9542 TURN UP 0.0000
-0.6021 TV </s> -0.3010
-0.6021 TV IN -0.2389
-0.3010 TWENTY-FIVE PERCENT 0.0000
-0.3010 UP THE -0.2380
-0.3010 WALL LIGHT -0.2430
-0.3010 WANT TO -0.2688
-0.3010 WAS THAT -0.2430
-0.9031 WATCH A -0.2688
-0.9031 WATCH ABC 0.0000
-0.9031 WATCH FOX -0.0969
-0.9031 WATCH MTV 0.0000
-0.4260 WEATHER BE -0.1461
-0.9031 WEATHER LIKE -0.0669
-0.3010 WEST WALL 0.0000
-1.2553 WHAT DOES 0.0000
-0.9542 WHAT IS -0.2747
-1.2553 WHAT TEMPERATURE 0.0000
-1.2553 WHAT TIME -0.1761
-0.7782 WHAT WILL -0.1963
-1.2553 WHAT YOU'RE 0.0000
-0.6021 WHAT'S IT -0.2906
-0.6021 WHAT'S THE -0.2981
-0.3010 WHATS THE -0.2891
-0.3010 WHEN WILL -0.1549
-0.3010 WHY DON'T 0.0000
-0.5441 WILL IT -0.2576
-0.6690 WILL THE -0.2891
-0.3010 YLVIS </s> -0.3010
-0.3010 YOU DIE 0.0000
-0.3010 YOU'RE DOING 0.0000

\3-grams:
-0.3010 1 TO NEW
-0.3010 10 MINUTE TIMER
-0.3010 100 PERCENT </s>
-0.3010 15 MINUTE TIMER
-0.3010 3 TO DINING
-0.3010 5 MINUTE TIMER
-0.3010 5 MINUTES </s>
-0.3010 95 PERCENT </s>
-0.3010 96 PERCENT </s>
-0.3010 98 PERCENT </s>
-0.3010 99 PERCENT </s>
-0.3010 <s> 5 MINUTE
-0.3010 <s> ALOHA </s>
-0.7782 <s> CANCEL THAT
-0.4771 <s> CANCEL THE
-0.3010 <s> CHANGE THE
-0.3010 <s> CYBERMAN SHUT
-0.3010 <s> DALEK SHUT
-0.3010 <s> DIM THE
-1.4150 <s> EHMA DIE
-1.4150 <s> EHMA PLEASE
-1.1139 <s> EHMA SHUT
-1.4150 <s> EHMA THE
-0.5119 <s> EHMA TURN
-0.3010 <s> FLIP THE
-0.7782 <s> GIVE ME
-0.4771 <s> GIVE TURN
-0.3010 <s> GO TO
-0.9031 <s> GOOD AFTERNOON
-0.9031 <s> GOOD EVENING
-0.9031 <s> GOOD MORNING
-0.9031 <s> GOOD NIGHT
-0.3010 <s> HAL SHUT
-0.3010 <s> HELLO </s>
-0.3010 <s> HI </s>
-0.3010 <s> HOLA </s>
-0.6990 <s> HOW COLD
-0.6990 <s> HOW HOT
-1.0000 <s> HOW RAINY
-0.3010 <s> HOWDY </s>
-1.0792 <s> I NEED
-0.3802 <s> I WANT
-0.3010 <s> IN TURN
-0.3680 <s> IS IT
-1.1461 <s> IS THAT
-0.3010 <s> IT TURN
-0.3010 <s> JARVIS SHUT
-0.3010 <s> JEEVES SHUT
-0.3010 <s> OFF LIGHTS
-0.3010 <s> PLAY THE
-0.6021 <s> PLEASE CHANGE
-0.6021 <s> PLEASE SHUT
-0.3010 <s> SARAH SHUT
-0.6532 <s> SET A
-0.5563 <s> SET THE
-0.3010 <s> SHUT DOWN
-1.0792 <s> STOP </s>
-0.6021 <s> STOP THE
-1.0792 <s> STOP TURN
-1.0792 <s> STOP WHAT
-0.3010 <s> TELL ME
-0.3010 <s> THAT ON
-0.3010 <s> TO EHMA
-0.3010 <s> TOGGLE THE
-1.7634 <s> TURN DOWN
-1.0645 <s> TURN OFF
-0.6842 <s> TURN ON
-1.1614 <s> TURN THE
-0.9853 <s> TURN TO
-1.7634 <s> TURN UP
-0.3010 <s> WAS THAT
-1.2041 <s> WHAT DOES
-0.9031 <s> WHAT IS
-1.2041 <s> WHAT TEMPERATURE
-1.2041 <s> WHAT TIME
-0.7270 <s> WHAT WILL
-0.6021 <s> WHAT'S IT
-0.6021 <s> WHAT'S THE
-0.3010 <s> WHATS THE
-0.3010 <s> WHEN WILL
-0.3010 <s> WHY DON'T
-0.3010 <s> WILL IT
-0.3010 A 10 MINUTE
-0.3010 A 15 MINUTE
-0.3010 A 5 MINUTE
-0.3010 A MOVIE </s>
-0.3010 A TIMER </s>
-0.3010 ABOUT FOXES </s>
-0.3010 ABOUT TESLA MOTORS
-0.3010 ABOUT YLVIS </s>
-0.3010 BASEMENT LIGHT </s>
-0.7782 BASEMENT LIGHTS </s>
-0.4771 BASEMENT LIGHTS TO
-0.3010 BASEMENT TIMER </s>
-0.3010 BATHROOM LIGHT ON
-0.3010 BE CLOUDY TODAY
-0.3010 BE LIKE IN
-0.3010 BE SUNNY TODAY
-0.3010 BEDROOM LIGHTS ON
-0.3010 CALIFORNIA ON MONDAY?
-0.3010 CANCEL THAT LAST
-0.3010 CANCEL THE TIMER
-0.3010 CARTER'S ROOM </s>
-0.3010 CHANGE CHRISTMAS LIGHTS
-1.0792 CHANGE THE CHANNEL
-0.3802 CHANGE THE NAME
-0.3010 CHANNEL 35 </s>
-0.3010 CHANNEL TO 3
-0.4771 CHRISTMAS LIGHTS </s>
-0.7782 CHRISTMAS LIGHTS TO
-0.3010 CLOUDY RIGHT NOW?
-0.3010 CLOUDY TODAY </s>
-0.3010 COLD IS IT
-0.3010 COLUMBUS TODAY </s>
-0.3010 CORNER OUTLET </s>
-0.3010 CURRENTLY RAINING </s>
-0.3010 CYBERMAN SHUT DOWN
-0.3010 DALEK SHUT DOWN
-0.3010 DIEGO, CALIFORNIA ON
-0.3522 DIM THE LIGHTS
-1.2553 DIM THE NORTH
-1.0000 DINING ROOM LIGHT
-0.4771 DINING ROOM LIGHTS
-1.4771 DINING ROOM LIKE
-1.4771 DINING ROOM OUTLET
-0.3010 DOES THE FOX
-0.3010 DON'T YOU DIE
-0.3010 DOWN IN 5
-0.3010 DOWN NOW </s>
-0.3010 DOWN THE LIGHTS
-0.3010 EHMA DIE </s>
-0.3010 EHMA PLEASE SHUT
-0.3010 EHMA SHUT DOWN
-0.3010 EHMA THE ON
-1.2553 EHMA TURN IS
-0.7782 EHMA TURN OFF
-0.7782 EHMA TURN ON
-1.2553 EHMA TURN THE
-1.2553 EHMA TURN TO
-0.3010 FAN IN THIS
-0.3010 FAN TO FAN
-0.3010 FIFTY PERCENT </s>
-0.3010 FLIP THE LIGHT
-0.3010 FOX SAY? </s>
-0.3010 GIVE ME A
-0.3010 GIVE TURN ON
-0.3010 GO TO ESPN
-0.3010 GOOD AFTERNOON </s>
-0.3010 GOOD EVENING </s>
-0.3010 GOOD MORNING </s>
-0.3010 GOOD NIGHT </s>
-0.3010 HAL SHUT DOWN
-0.3010 HOT IS IT
-0.3010 HOW COLD IS
-0.3010 HOW HOT IS
-0.3010 HOW RAINY IS
-0.3010 HUE TO SHOW
-0.3010 I NEED A
-0.3010 I WANT TO
-0.3010 IN 5 MINUTES
-0.3010 IN CARTER'S ROOM
-0.6021 IN COLUMBUS </s>
-0.6021 IN COLUMBUS TODAY
-0.3010 IN MADDIE'S ROOM
-0.3010 IN MIAMI TOMORROW
-0.3010 IN SAN DIEGO,
-0.4260 IN THE BASEMENT
-0.9031 IN THE LIVING
-0.3010 IN THIS ROOM
-0.3010 IN TURN ON
-0.3010 IS DINING ROOM
-0.8129 IS IT </s>
-1.4150 IS IT CLOUDY
-1.4150 IS IT CURRENTLY
-1.1139 IS IT OUTSIDE
-1.4150 IS IT OUTSIDE?
-0.9379 IS IT RAINING
-1.4150 IS IT SUNNY
-0.3010 IS THAT RAIN
-0.6021 IS THE MEANING
-0.6021 IS THE TEMPERATURE?
-0.6021 IT BE CLOUDY
-0.6021 IT BE SUNNY
-0.3010 IT CLOUDY RIGHT
-0.3010 IT CURRENTLY RAINING
-0.3010 IT LIKE OUTSIDE?
-0.3010 IT OUTSIDE </s>
-0.3010 IT OUTSIDE? </s>
-0.6021 IT RAIN </s>
-0.6021 IT RAIN THIS
-0.7782 IT RAINING </s>
-0.7782 IT RAINING OUTSIDE
-0.7782 IT RAINING RIGHT
-0.3010 IT SUNNY OUT
-0.7782 IT TURN OFF
-0.4771 IT TURN ON
-0.3010 JARVIS SHUT DOWN
-0.3010 JEEVES SHUT DOWN
-0.3010 LAST ORDER </s>
-0.3010 LIGHT OFF </s>
-0.3010 LIGHT ON </s>
-0.7782 LIGHT TO 75%
-0.7782 LIGHT TO CHRISTMAS
-0.7782 LIGHT TO SEVENTY-FIVE
-0.6021 LIGHTS IN </s>
-0.6021 LIGHTS IN THE
-0.3010 LIGHTS ON </s>
-1.3802 LIGHTS TO 100
-1.0792 LIGHTS TO 95
-1.3802 LIGHTS TO 96
-1.3802 LIGHTS TO 98
-1.3802 LIGHTS TO 99
-1.3802 LIGHTS TO CORNER
-1.0792 LIGHTS TO FIFTY
-1.3802 LIGHTS TO FULL
-1.3802 LIGHTS TO HALF
-1.3802 LIGHTS TO TWENTY-FIVE
-1.0000 LIKE IN </s>
-0.6990 LIKE IN COLUMBUS
-1.0000 LIKE IN MIAMI
-1.0000 LIKE IN SAN
-0.3010 LIKE OUTSIDE? </s>
-0.9031 LIVING ROOM </s>
-0.9031 LIVING ROOM FAN
-0.9031 LIVING ROOM LIGHTS
-0.9031 LIVING ROOM TIMER
-0.3010 MADDIE'S ROOM </s>
-0.3010 MASTER BATHROOM LIGHT
-0.3010 MASTER BEDROOM LIGHTS
-0.3010 ME A 10
-0.7782 ME ABOUT FOXES
-0.7782 ME ABOUT TESLA
-0.7782 ME ABOUT YLVIS
-0.3010 MEANING OF LIFE
-0.3010 MIAMI TOMORROW </s>
-0.6021 MINUTE TIMER </s>
-0.6021 MINUTE TIMER IN
-1.0000 NAME OF LIVING
-0.6990 NAME OF OUTLET
-1.0000 NAME OF PHILLIPS
-1.0000 NAME OF WEST
-0.3010 NEED A 10
-0.3010 NEW OUTLET </s>
-0.3010 NORTH WALL LIGHT
-0.3010 OF LIFE </s>
-0.3010 OF LIVING ROOM
-0.6021 OF OUTLET 1
-0.6021 OF OUTLET 3
-0.3010 OF PHILLIPS HUE
-0.3010 OF WEST WALL
-0.3010 OFF LIGHTS </s>
-0.3010 OFF TELL DINING
-0.7270 OFF THE DINING
-1.2041 OFF THE FAN
-0.7270 OFF THE LIGHTS
-1.2041 OFF THE LIVING
-0.3010 ON FOX </s>
-0.3010 ON LIGHTS </s>
-0.3010 ON MONDAY? </s>
-0.3010 ON MTV </s>
-1.2041 ON THE BASEMENT
-1.5051 ON THE CHRISTMAS
-0.8062 ON THE DINING
-1.5051 ON THE FAN
-0.8062 ON THE LIGHTS
-1.2041 ON THE TV
-0.3010 ON TO DINING
-0.3010 OUT TODAY </s>
-0.3010 OUTLET 1 TO
-0.3010 OUTLET 3 TO
-0.3010 PHILLIPS HUE TO
-0.3010 PLAY THE MOVIE
-0.3010 PLEASE CHANGE THE
-0.3010 PLEASE SHUT DOWN
-0.3010 RAIN THIS AFTERNOON
-0.3010 RAINING OUTSIDE </s>
-0.3010 RAINING RIGHT NOW
-0.3010 RAINY IS IT
-0.3010 RIGHT NOW </s>
-0.3010 RIGHT NOW? </s>
-0.3010 ROOM FAN TO
-0.3010 ROOM LIGHT </s>
-0.4973 ROOM LIGHTS </s>
-0.7404 ROOM LIGHTS ON
-0.3010 ROOM LIKE IN
-0.3010 ROOM OUTLET </s>
-0.3010 ROOM TIMER OFF
-0.3010 SAN DIEGO, CALIFORNIA
-0.3010 SARAH SHUT DOWN
-0.9031 SET A 15
-0.6021 SET A 5
-0.9031 SET A TIMER
-0.6990 SET THE BASEMENT
-0.6990 SET THE LIGHTS
-1.0000 SET THE SOUTH
-0.3010 SEVENTY-FIVE PERCENT </s>
-0.3010 SHOW LIGHTS </s>
-0.3736 SHUT DOWN </s>
-1.4150 SHUT DOWN IN
-1.4150 SHUT DOWN NOW
-0.3010 SOUTH WALL LIGHT
-0.7782 STOP THE BASEMENT
-0.7782 STOP THE MOVIE
-0.7782 STOP THE TIMER
-0.3010 STOP TURN ON
-0.3010 STOP WHAT YOU'RE
-0.3010 SUNNY OUT TODAY
-0.3010 SUNNY TODAY </s>
-0.3010 TELL DINING ROOM
-0.3010 TELL ME ABOUT
-0.3010 TEMPERATURE IS IT
-0.3010 TESLA MOTORS </s>
-0.3010 THAT LAST ORDER
-0.3010 THAT ON THE
-0.3010 THAT RAIN </s>
-0.3010 THAT THUNDER </s>
-0.7270 THE BASEMENT </s>
-1.2041 THE BASEMENT LIGHT
-0.7270 THE BASEMENT LIGHTS
-1.2041 THE BASEMENT TIMER
-0.3010 THE BEDROOM LIGHTS
-0.3010 THE CHANNEL TO
-0.3010 THE CHRISTMAS LIGHTS
-0.3010 THE DINING ROOM
-0.6021 THE FAN </s>
-0.6021 THE FAN IN
-0.3010 THE FOX SAY?
-0.6021 THE LIGHT </s>
-0.9031 THE LIGHT OFF
-0.9031 THE LIGHT ON
-0.6478 THE LIGHTS </s>
-1.3010 THE LIGHTS IN
-0.6478 THE LIGHTS TO
-0.3010 THE LIVING ROOM
-0.6021 THE MASTER BATHROOM
-0.6021 THE MASTER BEDROOM
-0.3010 THE MEANING OF
-0.3010 THE MOVIE </s>
-0.3010 THE NAME OF
-0.3010 THE NORTH WALL
-0.3010 THE ON TO
-0.3010 THE SOUTH WALL
-0.3010 THE TEMPERATURE? </s>
-0.3010 THE TIME </s>
-0.4771 THE TIMER </s>
-0.7782 THE TIMER IN
-0.6021 THE TV </s>
-0.6021 THE TV IN
-0.4260 THE WEATHER BE
-0.9031 THE WEATHER LIKE
-0.3010 THIS AFTERNOON </s>
-0.3010 THIS ROOM </s>
-0.3010 TIME IS IT
-0.9031 TIMER IN CARTER'S
-0.9031 TIMER IN MADDIE'S
-0.6021 TIMER IN THE
-0.3010 TIMER OFF </s>
-0.3010 TO 100 PERCENT
-0.3010 TO 3 </s>
-0.3010 TO 75% </s>
-0.3010 TO 95 PERCENT
-0.3010 TO 96 PERCENT
-0.3010 TO 98 PERCENT
-0.3010 TO 99 PERCENT
-0.3010 TO CBS </s>
-0.3010 TO CHANGE CHRISTMAS
-0.3010 TO CHANNEL 35
-0.3010 TO CHRISTMAS LIGHTS
-0.3010 TO CORNER OUTLET
-0.3010 TO DINING ROOM
-0.3010 TO EHMA TURN
-0.3010 TO ESPN </s>
-0.3010 TO FAN </s>
-0.3010 TO FIFTY PERCENT
-0.3010 TO FOX </s>
-0.3010 TO FULL </s>
-0.3010 TO HALF </s>
-0.3010 TO HGTV </s>
-0.3010 TO NEW OUTLET
-0.3010 TO SEVENTY-FIVE PERCENT
-0.3010 TO SHOW LIGHTS
-0.3010 TO TWENTY-FIVE PERCENT
-0.9031 TO WATCH A
-0.9031 TO WATCH ABC
-0.9031 TO WATCH FOX
-0.9031 TO WATCH MTV
-0.3010 TOGGLE THE LIGHT
-0.3010 TURN DOWN THE
-0.3010 TURN IS DINING
-1.2553 TURN OFF TELL
-0.3522 TURN OFF THE
-1.6232 TURN ON FOX
-1.0212 TURN ON LIGHTS
-1.6232 TURN ON MTV
-0.4472 TURN ON THE
-1.0000 TURN THE BEDROOM
-1.0000 TURN THE DINING
-1.0000 TURN THE LIVING
-0.6990 TURN THE MASTER
-1.1461 TURN TO CBS
-1.1461 TURN TO CHANNEL
-0.8451 TURN TO DINING
-1.1461 TURN TO ESPN
-1.1461 TURN TO FOX
-1.1461 TURN TO HGTV
-0.3010 TURN UP THE
-0.3010 TV IN THE
-0.3010 TWENTY-FIVE PERCENT </s>
-0.3010 UP THE LIGHTS
-0.3010 WALL LIGHT TO
-1.0000 WANT TO CHANGE
-0.3979 WANT TO WATCH
-0.3010 WAS THAT THUNDER
-0.3010 WATCH A MOVIE
-0.3010 WATCH ABC </s>
-0.3010 WATCH FOX </s>
-0.3010 WATCH MTV </s>
-0.3010 WEATHER BE LIKE
-0.3010 WEATHER LIKE IN
-0.3010 WEST WALL LIGHT
-0.3010 WHAT DOES THE
-0.3010 WHAT IS THE
-0.3010 WHAT TEMPERATURE IS
-0.3010 WHAT TIME IS
-0.3010 WHAT WILL THE
-0.3010 WHAT YOU'RE DOING
-0.3010 WHAT'S IT LIKE
-0.3010 WHAT'S THE TIME
-0.3010 WHATS THE WEATHER
-0.3010 WHEN WILL IT
-0.3010 WHY DON'T YOU
-0.6021 WILL IT BE
-0.6021 WILL IT RAIN
-0.3010 WILL THE WEATHER
-0.3010 YOU DIE </s>
-0.3010 YOU'RE DOING </s>

\end\
